<?xml version="1.0"?>
<opencv_storage>
<my_svm type_id="opencv-ml-svm">
  <svm_type>C_SVC</svm_type>
  <kernel><type>LINEAR</type></kernel>
  <C>1.0000000000000000e-002</C>
  <term_criteria><epsilon>1.1920928955078125e-007</epsilon>
    <iterations>1000</iterations></term_criteria>
  <var_all>360</var_all>
  <var_count>360</var_count>
  <class_count>2</class_count>
  <class_labels type_id="opencv-matrix">
    <rows>1</rows>
    <cols>2</cols>
    <dt>i</dt>
    <data>
      -1 1</data></class_labels>
  <sv_total>1</sv_total>
  <support_vectors>
    <_>
      1.13010600e-001 6.46836460e-002 8.42478219e-003 2.20916420e-002
      9.89809036e-002 7.52582699e-002 7.70781785e-002 6.43041283e-002
      1.16335429e-001 -3.95994410e-002 -8.30878466e-002 -9.85767320e-002
      3.27855013e-002 1.03734873e-001 -3.73041965e-002 -5.17138541e-002
      -3.73938456e-002 -2.31653713e-002 7.10773990e-002 -1.23198039e-003
      -1.01575047e-001 -1.46698758e-001 -3.24032223e-003 4.29193340e-002
      6.57505170e-002 5.61861917e-002 9.15772468e-002 -1.12079829e-001
      -2.01504812e-001 -2.44568899e-001 -1.13628089e-001
      -4.91163768e-002 -2.19642684e-001 -1.79403290e-001
      -1.12017341e-001 -8.81886110e-002 -2.95705963e-002
      -2.84122098e-002 6.62158616e-003 1.48729667e-001 2.03481898e-001
      -3.45511734e-002 -6.62770867e-002 -4.38003242e-002
      -3.02127432e-002 -1.44756902e-002 -3.41515914e-002
      -4.14694101e-002 9.84345302e-002 1.49980620e-001 -8.80759954e-002
      -5.85473739e-002 -3.84937786e-002 -2.14923956e-002
      -8.13928992e-002 -9.20841321e-002 -8.90165791e-002 6.35426641e-002
      -1.91225279e-002 -3.25656474e-001 -2.49266803e-001
      -1.28231093e-001 -9.01265889e-002 -5.17916642e-002
      -5.62643483e-002 -3.47179286e-002 7.48378113e-002 -1.11967782e-002
      -3.27736467e-001 -2.51317084e-001 -1.09750204e-001
      -7.44767115e-002 1.50989145e-002 3.65791880e-002 -2.05284227e-002
      -1.13243736e-001 3.25233303e-002 1.20752275e-001 7.21919611e-002
      4.75304723e-002 1.35634877e-002 5.18042082e-003 -2.56617703e-002
      -1.15339056e-001 -1.25646919e-001 -5.94527014e-002
      -1.40448675e-001 -3.08325440e-002 2.51063202e-002 2.00738795e-002
      -1.10976316e-001 -1.51776252e-002 3.39946784e-002 -9.66956392e-002
      4.65758182e-002 1.40311956e-001 6.98861256e-002 2.97621329e-004
      -1.06192075e-001 -2.27749217e-002 -6.40232395e-003
      -2.48617046e-002 -1.08493842e-001 -2.75290553e-002
      -1.09488621e-001 7.25983968e-003 2.91604400e-002 -1.05288094e-002
      3.15612219e-002 3.90691943e-002 8.73459280e-002 1.36029363e-001
      -8.90467316e-002 -1.97360128e-001 -1.21407248e-002 2.97428537e-002
      3.60682197e-002 6.60364628e-002 6.99655414e-002 1.38477117e-001
      1.63634226e-001 -1.11310467e-001 -3.64241511e-001 -1.12260543e-002
      4.31694798e-002 6.30089566e-002 4.64518443e-002 5.96967489e-002
      1.36187509e-001 -1.35463383e-002 -9.24690217e-002 -8.93746689e-002
      4.23157550e-002 5.27156740e-002 5.06704152e-002 9.18463394e-002
      1.13025583e-001 2.21497968e-001 -8.08089226e-002 -6.98836371e-002
      -1.69996783e-001 6.55960143e-002 6.93286210e-002 8.91278237e-002
      -6.20156676e-002 2.68696789e-002 1.32988021e-001 4.98819053e-002
      1.03510387e-001 1.11557804e-001 4.36436832e-002 -1.71762649e-002
      -7.84498379e-002 3.23002832e-003 2.60354951e-002 5.51019832e-002
      -1.48538113e-001 -5.23069724e-002 -6.87607825e-002 2.55677812e-002
      3.82374227e-002 1.14385225e-002 -1.84756890e-002 3.73773389e-002
      9.34915990e-002 -1.66800059e-002 -1.23170177e-002 -1.41903199e-003
      -1.54504534e-002 -9.57320258e-002 -1.02465510e-001 3.29195857e-002
      3.62436324e-002 -6.91145584e-002 -1.32304385e-001 -5.85422292e-002
      -4.43185084e-002 1.49421711e-002 2.82097962e-002 1.53811034e-002
      4.37947959e-002 5.90966903e-002 1.16783805e-001 -1.31913081e-001
      -1.10153347e-001 5.48014753e-002 4.64365557e-002 5.04340418e-002
      4.73760553e-002 8.09351504e-002 1.10612214e-001 2.21968457e-001
      -1.94795787e-001 -1.15661323e-001 4.60794941e-002 6.68945014e-002
      5.97575754e-002 7.42770880e-002 4.65306751e-002 6.79362789e-002
      9.72300470e-002 -2.28368983e-001 -1.10391080e-001 1.29517660e-001
      4.63012494e-002 4.90616113e-002 4.58190292e-002 1.00631230e-001
      1.58293486e-001 1.90773457e-001 -1.86983377e-001 -1.22102365e-001
      1.47758573e-001 7.70587847e-002 6.78224787e-002 8.75816792e-002
      1.75743923e-002 9.73623712e-003 3.00998334e-002 -3.22914645e-002
      -8.20903853e-002 -7.66092017e-002 1.41600780e-002 -3.07946056e-002
      -5.55409491e-002 2.03733202e-002 -3.88875068e-003 -9.81937572e-002
      -7.26960003e-002 -3.32319029e-002 -2.29504867e-003 2.74561327e-002
      3.24679315e-002 1.69359352e-002 6.99189305e-002 1.70143954e-002
      -6.90757297e-003 -4.10842896e-003 -5.28827459e-002
      -2.02904329e-001 -2.51323581e-002 3.48201096e-002 5.96295074e-002
      9.08432156e-003 -3.50359567e-002 -2.15203717e-001 -3.60132642e-002
      9.24260728e-003 -2.68988237e-002 -2.86557730e-002 1.04195848e-002
      2.15727687e-002 2.65583862e-002 5.00686727e-002 -7.75251305e-003
      -2.85229445e-001 -8.72837305e-002 9.84562784e-002 2.75392346e-002
      2.86340490e-002 2.68604141e-002 7.15995952e-002 1.24253146e-001
      1.17551632e-001 -1.89503834e-001 -1.62885949e-001 1.47060588e-001
      6.44655526e-002 4.68831547e-002 6.21070564e-002 3.92669477e-002
      5.07836491e-002 -1.36162445e-001 -2.09790856e-001 4.05913629e-002
      1.35303274e-001 3.06131523e-002 1.91374198e-002 3.28390114e-002
      1.07548431e-001 1.37125432e-001 -8.39541629e-002 -1.63655311e-001
      -4.64063324e-002 1.92194775e-001 7.54526258e-002 5.42722829e-002
      8.99651125e-002 6.52114954e-003 -6.48883283e-002 -1.39452890e-001
      -6.00026399e-002 -2.74754427e-002 -2.60678768e-001
      -1.52041525e-001 -3.95039283e-002 1.15450472e-002 -1.26017675e-001
      -1.79027528e-001 -2.83890814e-001 -6.69300780e-002 4.36368175e-002
      -1.09318733e-001 -1.42161235e-001 -1.09202415e-001
      -1.05378404e-001 3.63952667e-002 -1.64332322e-003 -5.40221184e-002
      4.13516946e-002 1.18585698e-001 -4.24356796e-002 -1.71842426e-002
      2.11567013e-003 3.52415815e-002 -4.71492000e-002 -3.91092561e-002
      -7.51375929e-002 3.83538455e-002 1.30442247e-001 3.92325744e-002
      -1.43601466e-002 -3.62723954e-002 -5.03561758e-002
      -8.20778012e-002 -1.36643618e-001 -3.42584014e-001
      -2.33859479e-001 -1.45688292e-003 2.04183180e-002 -4.59460281e-002
      -5.47933616e-002 -4.88369949e-002 -4.40680375e-003
      -8.29959884e-002 -3.05290282e-001 -1.68531358e-001
      -1.43022574e-002 7.86508992e-002 1.64253917e-002 4.36821254e-003
      2.47253329e-002 -2.71331985e-002 -5.45456782e-002 -1.07504576e-001
      -4.30026650e-002 1.34864926e-001 5.47514595e-002 -2.51220572e-005
      -8.55511520e-003 -1.13002369e-002 8.79509002e-003 -6.31802604e-002
      -1.26400709e-001 -6.17228039e-002 1.39194950e-001 8.52094144e-002
      3.88752222e-002 2.86488999e-002 4.17215638e-002</_></support_vectors>
  <decision_functions>
    <_>
      <sv_count>1</sv_count>
      <rho>-2.0236371201063577e+000</rho>
      <alpha>
        1.</alpha>
      <index>
        0</index></_></decision_functions></my_svm>
</opencv_storage>
