<?xml version="1.0"?>
<opencv_storage>
<my_svm type_id="opencv-ml-svm">
  <svm_type>C_SVC</svm_type>
  <kernel><type>LINEAR</type></kernel>
  <C>1.0000000000000000e-002</C>
  <term_criteria><epsilon>1.1920928955078125e-007</epsilon>
    <iterations>10000</iterations></term_criteria>
  <var_all>576</var_all>
  <var_count>576</var_count>
  <class_count>2</class_count>
  <class_labels type_id="opencv-matrix">
    <rows>1</rows>
    <cols>2</cols>
    <dt>i</dt>
    <data>
      -1 1</data></class_labels>
  <sv_total>1</sv_total>
  <support_vectors>
    <_>
      7.94007629e-002 4.24132086e-002 4.02851915e-003 9.94048547e-003
      7.72328535e-003 3.25508639e-002 4.62802872e-002 6.60155118e-002
      7.86198154e-002 1.39808375e-002 -2.58366670e-002 -5.41613623e-002
      -1.95823982e-002 3.66023667e-002 6.95255995e-002 5.65432385e-002
      5.20451702e-002 2.46038400e-002 4.24551703e-002 6.68102119e-004
      -6.39109537e-002 -6.53786957e-002 -2.69081611e-002 2.69618649e-002
      3.71911786e-002 2.11961679e-002 4.73390482e-002 -8.40289816e-002
      -1.44731387e-001 -1.68919191e-001 -1.26026958e-001
      -2.56289132e-002 2.11643446e-002 8.13019089e-003 -1.44253951e-002
      -6.24102838e-002 1.54872686e-002 -1.47614935e-002 -6.46250881e-003
      8.55274126e-002 1.54765621e-001 1.51446357e-001 1.08511299e-001
      7.56378621e-002 3.51997912e-002 -9.07549486e-002 -6.17503114e-002
      4.73455107e-003 8.41596350e-002 1.36423290e-001 1.02893911e-001
      2.69712228e-002 -8.79742019e-003 -5.20934910e-002 -1.05352916e-001
      -1.16958514e-001 -1.04194030e-001 -2.98148990e-002 8.99047703e-002
      8.95961598e-002 -1.90295149e-002 -5.53277954e-002 -9.44082662e-002
      -1.11975946e-001 -7.07193688e-002 -2.36713961e-002 2.59617735e-002
      2.68839858e-002 -3.13599892e-002 -9.97855291e-002 -9.65914577e-002
      -1.21671543e-001 -7.56991655e-002 -3.11424630e-003 3.40628475e-002
      5.12433685e-002 1.54663071e-001 1.06332786e-001 -4.45727445e-002
      -9.48518142e-002 -1.08873427e-001 -1.22909890e-002 4.48739938e-002
      5.31795993e-002 1.03373729e-001 2.04646438e-001 1.03612073e-001
      -8.36427733e-002 -1.29370391e-001 -7.89689422e-002
      -4.34440635e-002 1.59483161e-002 3.53654437e-002 2.53617931e-002
      3.36460099e-002 -9.33524147e-002 -2.08780363e-001 -1.58841893e-001
      -9.73719433e-002 4.30765897e-002 9.40433741e-002 1.05494261e-001
      1.17660500e-001 9.05921757e-002 -7.30292574e-002 -1.99661165e-001
      -1.47128254e-001 -4.36266176e-002 -7.10973609e-003 1.10553661e-002
      3.65201454e-003 2.69779526e-002 1.10634305e-001 5.67378011e-003
      -1.31513089e-001 -1.49018288e-001 -6.94241226e-002 2.36598980e-002
      9.88052692e-003 -3.69720673e-003 4.95279580e-003 7.77440444e-002
      4.49070968e-002 -3.61613035e-002 -6.37797788e-002 4.76684747e-003
      3.08759008e-002 6.46302104e-002 5.08540608e-002 4.65739444e-002
      8.85299314e-003 -1.00527033e-001 -2.17670903e-001 -1.39185324e-001
      -3.11933439e-002 2.51543466e-002 2.12732628e-002 3.71357938e-003
      -1.88547478e-003 -1.12309456e-002 -7.06217960e-002
      -8.93467814e-002 -5.13809472e-002 1.03161354e-002 6.45681918e-002
      5.79746887e-002 1.95576493e-002 7.97248073e-003 3.85434218e-002
      1.08423628e-001 7.34330863e-002 4.26045246e-002 5.40692657e-002
      -4.72419709e-002 -7.79966936e-002 -1.13773592e-001
      -1.01665281e-001 -7.03934813e-004 7.04273283e-002 4.00291048e-002
      2.64785103e-002 -4.38416339e-002 6.99161319e-003 4.54336777e-002
      5.38844243e-002 2.59275958e-002 1.88824609e-002 8.24239701e-002
      8.54374468e-002 5.27891442e-002 8.06770381e-003 -6.96369410e-002
      -6.15928546e-002 -5.43125458e-002 -6.65555894e-002
      -2.98880059e-002 -3.77439102e-003 -1.24424640e-002
      -6.47458946e-003 -5.71485907e-002 -5.32568246e-002
      -2.85511799e-002 -2.01694611e-002 2.46273950e-002 1.28009200e-001
      1.05056971e-001 1.60720441e-002 2.08519306e-003 -5.68238832e-002
      -7.08104949e-003 4.46229801e-002 7.23987222e-002 8.31090510e-002
      4.99622226e-002 -2.49853209e-002 -8.26226324e-002 -4.87772152e-002
      -3.52876484e-002 -4.67918590e-002 -1.81736015e-002 2.29084864e-002
      5.00151850e-002 7.50981793e-002 5.34249544e-002 3.89131494e-002
      2.84020342e-002 -2.33388525e-002 1.75492279e-002 3.58764157e-002
      3.60497124e-002 5.31310551e-002 2.14674342e-002 7.88540300e-003
      -2.36548763e-002 1.73954014e-002 3.39946598e-002 6.36333749e-002
      7.95697346e-002 7.07449317e-002 4.80695441e-002 1.79605689e-002
      -1.08024582e-001 -1.46881640e-001 -3.74641679e-002 3.57775353e-002
      1.23654708e-001 1.35234669e-001 1.40419602e-001 1.18472114e-001
      5.66929989e-002 -9.28254053e-002 -1.20898373e-001 2.90567093e-002
      1.12497866e-001 7.73424953e-002 4.84133437e-002 2.38441490e-002
      -5.92739927e-003 -7.21282810e-002 -8.42909589e-002
      -5.91271520e-002 3.97761837e-002 7.53473416e-002 1.37977362e-001
      1.33146122e-001 1.01630241e-001 2.08681617e-002 -5.07020280e-002
      -6.12816699e-002 4.13224660e-003 1.17345959e-001 1.29519895e-001
      8.65717828e-002 1.03888080e-001 8.60966593e-002 3.49083841e-002
      -4.65463065e-002 -1.66891366e-001 -1.56648338e-001 4.13914071e-003
      7.56599754e-002 7.45063275e-002 7.21323341e-002 5.11588752e-002
      3.12780179e-002 -4.02714219e-003 -4.91114892e-002 -1.53719289e-002
      6.09751940e-002 7.44850039e-002 1.01159282e-001 1.06574506e-001
      4.91397306e-002 -8.98400769e-002 -1.14017934e-001 -1.06746651e-001
      -2.22038981e-002 7.71374628e-002 8.89492109e-002 9.57070068e-002
      1.03581220e-001 3.91570888e-002 -5.96830472e-002 -5.74209541e-002
      -3.85525897e-002 6.36875927e-002 8.77005681e-002 8.47721249e-002
      -3.47602069e-002 9.03986767e-003 7.65645579e-002 7.70900473e-002
      3.50103453e-002 6.73993900e-002 7.36972988e-002 5.78478128e-002
      3.58576118e-003 -7.55074695e-002 -5.49111851e-002 -1.11192623e-002
      -3.22249159e-002 -5.02928011e-002 -6.51596636e-002
      -6.00991100e-002 -3.45218703e-002 -5.44882007e-002
      -2.17796842e-004 -4.01281333e-003 7.76747465e-002 1.19467683e-001
      6.73394948e-002 9.01936814e-002 1.02990128e-001 8.73116404e-002
      4.95818742e-002 -3.67883481e-002 -1.55843301e-002 3.88254710e-002
      6.88373148e-002 -1.70658436e-002 -5.75746931e-002 -6.36153072e-002
      -2.53901239e-002 -2.08585467e-002 -5.82521819e-002
      -3.07373088e-002 1.70810539e-002 5.64614013e-002 4.34580259e-002
      8.02097283e-003 2.87794657e-002 3.03191710e-002 -1.31950928e-002
      -2.20433623e-002 -2.65961234e-002 -3.04364339e-002 6.93875272e-003
      2.75507905e-002 3.92864197e-002 3.91143151e-002 7.90754631e-002
      4.28422801e-002 -5.75791113e-002 -3.64121087e-002 4.19988297e-002
      1.12016797e-001 8.10450017e-002 4.91125463e-003 -1.58049166e-002
      1.85423903e-002 -1.04887541e-002 -5.36992922e-002 -7.78557733e-002
      -5.80364205e-002 -4.82330052e-003 5.26562147e-002 8.84909257e-002
      7.53300861e-002 7.74948224e-002 6.36164797e-003 3.96118127e-002
      3.96865606e-003 -4.68327180e-002 -9.63348597e-002 -8.01172629e-002
      -9.17578395e-003 5.23031130e-003 7.68119246e-002 7.71216229e-002
      1.03802316e-001 1.06628589e-001 4.76613222e-003 -1.08007461e-001
      -8.19696561e-002 4.37199846e-002 6.98523670e-002 1.24804020e-001
      1.07877158e-001 9.29331779e-003 2.13395315e-003 -9.85349715e-002
      -1.57986477e-001 -2.18744390e-002 9.11091268e-002 8.13671499e-002
      8.36874023e-002 3.66148949e-002 1.02250271e-001 6.28620088e-002
      -8.45883116e-002 -1.46527797e-001 -9.60514229e-003 1.64696679e-001
      1.43511057e-001 1.24394894e-001 8.70979577e-002 7.40703642e-002
      7.59505332e-002 -6.27419502e-002 -2.06863552e-001 -1.38462618e-001
      -6.32952852e-003 4.38930653e-002 9.74726006e-002 7.76694342e-002
      9.01375338e-002 1.01307042e-001 1.13784475e-002 -1.37228593e-001
      -7.68163279e-002 4.39887680e-002 8.45913738e-002 1.00863673e-001
      8.66667628e-002 5.48284203e-002 2.26851478e-002 -1.72280967e-001
      -2.46209607e-001 -7.48879686e-002 7.65005350e-002 8.38917121e-002
      8.11384544e-002 5.97528704e-002 7.53363818e-002 5.11261746e-002
      -7.26128146e-002 -1.40599698e-001 4.79013106e-004 1.05127633e-001
      8.94125104e-002 7.54099712e-002 7.50156790e-002 -2.49261186e-002
      -4.07289006e-002 2.21640174e-003 2.27729548e-002 6.79237721e-003
      9.46942251e-003 3.09193097e-002 2.08593644e-002 4.25800029e-003
      -5.54070622e-002 -3.46296467e-002 -1.47380233e-002 1.93128791e-002
      -5.60484007e-002 -9.09836963e-002 -1.06219836e-001
      -7.68556744e-002 -5.81410713e-002 5.07544503e-002 2.71882955e-002
      8.23410694e-003 9.92215518e-003 -1.84412603e-003 -1.26885751e-003
      2.12045461e-002 2.70254370e-002 5.13252690e-002 5.71111031e-002
      5.59694432e-002 1.82830989e-002 1.30892973e-002 -2.42025275e-002
      -5.17910868e-002 -2.17575356e-002 -4.31059953e-003 3.64941657e-002
      -7.52487779e-002 -5.41238524e-002 -2.89579406e-002 4.12087291e-002
      2.98950132e-002 -5.90429492e-002 -1.33390307e-001 -1.17594913e-001
      -8.39011744e-002 -1.27137870e-001 -8.02787691e-002
      -9.98852775e-002 -8.72382820e-002 1.36180595e-002 3.70457582e-002
      -5.13641872e-002 -1.08035401e-001 -1.33950934e-001 7.44282380e-002
      1.10676728e-001 7.54384995e-002 5.81504330e-002 6.94458857e-002
      4.98933382e-002 2.86034141e-002 -1.29587119e-002 3.94425690e-002
      2.36289669e-002 6.78031296e-002 5.42796068e-002 6.42188638e-003
      7.15063661e-002 7.90889561e-002 2.36191433e-002 -4.69698608e-002
      -2.82380637e-002 -9.12740454e-002 -5.48366196e-002
      -1.55404612e-001 -2.10511401e-001 -2.63222121e-002 4.76699397e-002
      -7.49372528e-004 -5.52533641e-002 -9.79939252e-002
      -5.73942885e-002 -6.79236352e-002 -1.50085881e-001
      -1.80272564e-001 -3.47248686e-004 9.95801240e-002 4.86528538e-002
      -1.33914547e-002 -4.47884090e-002 7.53504597e-003 6.62588924e-002
      1.82242859e-002 -2.60870773e-002 7.00026900e-002 6.97494745e-002
      2.84968466e-002 -2.12882552e-002 -3.66641358e-002 -1.06610265e-002
      1.91363860e-002 -2.52850596e-002 -1.43778482e-002 8.72833207e-002
      1.14423722e-001 5.03664576e-002 -1.10331899e-003 -1.66326631e-002
      -5.65405898e-002 -8.54401439e-002 -1.82339996e-001
      -2.08621964e-001 -1.39443791e-002 5.43968976e-002 8.08745157e-003
      -2.01723818e-002 -3.04362774e-002 -2.25588087e-006
      -8.12861044e-003 -9.40470248e-002 -1.16871029e-001 3.76949869e-002
      5.49769551e-002 2.12710293e-004 -1.36345709e-002 -1.47323431e-002
      -3.44179459e-002 -3.29698734e-002 -6.81351349e-002
      -4.84509729e-002 6.29193857e-002 4.94003259e-002 2.51488085e-003
      -2.46523898e-002 -1.73880085e-002 2.87357508e-003 2.22140923e-002
      4.51676734e-003 1.86334793e-002 7.90206566e-002 7.04328269e-002
      1.53622245e-002 -4.11597174e-003 -5.42776845e-003</_></support_vectors>
  <decision_functions>
    <_>
      <sv_count>1</sv_count>
      <rho>-5.5013510682077815e-001</rho>
      <alpha>
        1.</alpha>
      <index>
        0</index></_></decision_functions></my_svm>
</opencv_storage>
