<?xml version="1.0"?>
<opencv_storage>
<my_svm type_id="opencv-ml-svm">
  <svm_type>C_SVC</svm_type>
  <kernel><type>LINEAR</type></kernel>
  <C>1.0000000000000000e-002</C>
  <term_criteria><epsilon>1.1920928955078125e-007</epsilon>
    <iterations>10000</iterations></term_criteria>
  <var_all>576</var_all>
  <var_count>576</var_count>
  <class_count>2</class_count>
  <class_labels type_id="opencv-matrix">
    <rows>1</rows>
    <cols>2</cols>
    <dt>i</dt>
    <data>
      -1 1</data></class_labels>
  <sv_total>1</sv_total>
  <support_vectors>
    <_>
      1.22054994e-001 4.46520038e-002 -7.50642223e-003 -3.00165336e-003
      -3.72316651e-002 2.05352250e-002 1.24335317e-002 8.65241140e-003
      7.37934485e-002 5.51698655e-002 -1.04280543e-002 -7.88599923e-002
      -7.30961859e-002 -7.74158537e-002 -7.30630606e-002
      -3.38234901e-002 -1.05137806e-002 3.48189585e-002 6.90590590e-002
      3.54388021e-002 -1.90693792e-002 -3.53989638e-002 -1.84086282e-002
      6.70170709e-002 4.02272306e-002 -7.21035525e-003 1.28640644e-002
      -2.36893836e-002 -7.30230212e-002 -1.54283628e-001
      -1.30213976e-001 -9.76242051e-002 -4.34786752e-002
      -6.31518811e-002 -4.81138192e-002 -2.99988575e-002
      -2.84962784e-002 -4.31064479e-002 -6.66847229e-002
      -2.09651869e-002 2.81533841e-002 2.95314901e-002 5.57767488e-002
      3.44475508e-002 3.45468335e-003 -1.46342322e-001 -1.11448400e-001
      -5.77627271e-002 2.37739570e-002 8.52781460e-002 -4.61504515e-003
      -2.54296046e-002 -4.44824360e-002 -1.04569457e-001
      -1.25933709e-002 -4.39692214e-002 -9.78602171e-002
      -6.45911321e-002 -2.20161863e-002 -3.56492326e-002
      -4.56481315e-002 -1.61862224e-002 -2.60199551e-002
      -2.32239291e-002 -1.26510533e-002 -2.51125321e-002 2.14672703e-002
      3.74373049e-002 -3.88707854e-002 -9.14476663e-002 -2.91418178e-006
      -4.29516137e-002 -1.06183536e-001 -3.58110033e-002
      -3.80118899e-002 5.37560619e-002 1.35357782e-001 -4.25364636e-002
      -1.61670849e-001 -1.34529606e-001 -1.38634488e-001
      -5.57303242e-002 3.35505567e-002 3.09836902e-002 1.39221415e-001
      2.16657206e-001 3.67438234e-002 -1.50847733e-001 -1.32073462e-001
      -1.16537973e-001 2.33515110e-002 4.28271778e-002 2.09040903e-002
      4.67219874e-002 1.75897609e-002 -1.46823093e-001 -2.01938748e-001
      -5.34138419e-002 -2.53054518e-002 3.72977816e-002 1.03533953e-001
      1.16422512e-001 1.36380032e-001 3.77214439e-002 -1.39298066e-001
      -2.24853277e-001 -6.71401024e-002 -1.60617288e-002
      -6.63845092e-002 -2.14271266e-002 -1.89166293e-002 7.39406273e-002
      1.20288812e-001 -2.77437996e-002 -1.73039585e-001 -1.37967557e-001
      -1.21772766e-001 3.27525870e-003 -9.33514151e-004 4.87513989e-002
      1.16292730e-001 1.21026844e-001 8.27064142e-002 3.29271518e-002
      3.24636512e-002 2.47145328e-003 -1.28035992e-002 3.36504355e-002
      7.46607482e-002 4.96760346e-002 -2.83452459e-002 -1.65937021e-001
      -2.55249947e-001 -1.48684144e-001 -5.51856682e-002
      -7.22773885e-003 4.95485310e-003 5.92581779e-002 3.90784629e-002
      1.18318861e-002 -2.16709543e-002 -7.27692321e-002 2.16075853e-002
      1.94785781e-002 -1.02574062e-002 3.02091055e-002 -5.79476636e-003
      -3.48137319e-002 2.21594367e-002 1.54682055e-001 1.18679814e-001
      -2.66612344e-003 -6.15518317e-002 -5.94488010e-002
      -7.15008974e-002 -1.40423641e-001 -1.39613584e-001
      -6.25496283e-002 2.37922017e-002 2.04044525e-002 -1.95178837e-002
      -7.50947967e-002 -4.25753556e-002 6.62038922e-002 1.21600084e-001
      6.96687251e-002 3.30957361e-002 1.08174235e-001 1.51860878e-001
      4.38703895e-002 -6.55296966e-002 -2.92727426e-002 1.03437053e-002
      3.68354889e-003 -2.23137159e-003 1.94109604e-002 5.58414161e-002
      8.67770687e-002 4.48966101e-002 -3.51421833e-002 -3.54933999e-002
      -2.00342573e-002 -1.84267666e-002 -1.95651688e-002
      -1.36483577e-003 -4.07766029e-002 -2.83321738e-002
      -2.36942153e-002 -5.63075989e-002 1.02657136e-002 5.66495061e-002
      3.81867327e-002 1.98568013e-002 -6.30317628e-003 -7.46946409e-002
      -8.08085129e-002 3.31946462e-002 -5.11610007e-004 -1.65777951e-002
      4.43731211e-002 4.29907776e-002 2.73312312e-002 3.39521989e-002
      1.90258194e-002 1.75239816e-002 1.56492610e-002 -3.55080441e-002
      1.08838687e-002 8.69303718e-002 6.04928173e-002 1.59093086e-002
      -2.48742802e-003 -1.83226299e-002 -3.36949155e-003 5.45164011e-002
      3.10192863e-003 7.04432428e-002 8.69809911e-002 5.56172989e-002
      -6.16844231e-003 -1.90282036e-002 -1.68725729e-001
      -1.28427953e-001 7.09403008e-002 6.29948899e-002 9.75731462e-002
      1.32979050e-001 1.36531115e-001 5.21303862e-002 -1.75137818e-002
      -1.53222531e-001 -1.47778869e-001 6.29512742e-002 8.77191350e-002
      8.01182166e-002 1.16453148e-001 6.69229254e-002 -5.91669567e-002
      -4.60756607e-002 -5.31509556e-002 1.12799713e-002 1.06295854e-001
      7.56674856e-002 1.19137973e-001 1.34923398e-001 8.94335955e-002
      -2.91051939e-002 -9.45592746e-002 -1.90190170e-002
      -1.48393225e-003 1.05113409e-001 1.13269702e-001 3.23214158e-002
      6.74194396e-002 9.10766497e-002 -2.44341325e-002 -5.31725064e-002
      -2.03900635e-001 -1.84750393e-001 3.93010043e-002 4.33707088e-002
      9.54672787e-003 3.66915837e-002 1.08339779e-001 2.37694737e-002
      -1.49285626e-002 -3.78168561e-002 -1.82984006e-002 7.78834000e-002
      3.52470055e-002 2.17409618e-002 5.09850681e-002 4.95166816e-002
      -1.14385009e-001 -1.15180157e-001 -7.71670192e-002
      -5.13585843e-002 3.94975170e-002 2.20471621e-002 -2.25432217e-002
      5.15786968e-002 1.18833967e-001 -2.19902419e-003 -8.15049931e-002
      -1.22414650e-002 6.32287636e-002 5.45604639e-002 -1.69702619e-002
      -4.36942093e-002 4.88201082e-002 1.61103651e-001 1.55122414e-001
      3.27955484e-002 4.68037874e-002 9.09819379e-002 5.58001548e-002
      -5.17735668e-002 -5.11909137e-003 5.05042337e-002 8.22707117e-002
      6.60177469e-002 4.95696999e-003 -1.89692881e-002 -1.21080717e-002
      7.39014987e-003 -3.07107829e-002 -3.92020009e-002 2.29490306e-002
      1.19247124e-001 2.02467173e-001 5.88453449e-002 -3.02351229e-002
      -1.24041904e-002 1.83128100e-002 -3.34261470e-002 -7.22488239e-002
      -1.66472457e-002 -2.66297515e-002 3.82548273e-002 -5.24350181e-002
      -1.10492788e-001 -1.37646601e-001 -8.85175318e-002
      -8.35948288e-002 -3.18952426e-002 2.94141751e-002 1.44435130e-002
      -2.24491581e-003 2.79119611e-002 4.32794802e-002 4.91758846e-002
      3.64817046e-002 -3.24022770e-003 2.01041121e-002 9.50826555e-002
      2.41149701e-002 -5.07634841e-002 -4.59940918e-003 1.31734200e-002
      5.17526269e-002 8.07603970e-002 3.44571471e-002 -4.49385457e-002
      -1.61672570e-002 -5.54827340e-002 -1.98719781e-002 3.06017511e-003
      -1.61276683e-002 -3.39567065e-002 -4.47233543e-002
      -5.40261120e-002 2.32896563e-002 6.11411072e-002 -8.48377123e-002
      -9.05387178e-002 -1.87142473e-002 -1.18422098e-002 1.70372277e-002
      5.25372364e-002 1.11603541e-002 7.80790374e-002 1.14093028e-001
      1.77432448e-002 -1.20049201e-001 -7.29274824e-002 -5.03059104e-002
      5.75113185e-002 1.15571029e-001 8.82570669e-002 1.15152091e-001
      1.24170229e-001 4.23982693e-003 -1.03250608e-001 -1.10136405e-001
      4.39825654e-002 8.84921849e-002 1.27527878e-001 1.14528582e-001
      6.78392947e-002 8.54941681e-002 -1.44262284e-001 -2.10088387e-001
      -5.73738292e-002 1.75499986e-003 6.92400858e-002 1.12705253e-001
      7.36475065e-002 1.05061002e-001 6.82497472e-002 -1.70164287e-001
      -1.89942420e-001 -5.59237637e-002 1.56430304e-001 1.76448509e-001
      1.63821220e-001 1.32071912e-001 2.56902631e-002 4.92546335e-002
      -3.69204395e-002 -1.70719624e-001 -1.26153186e-001
      -3.11566442e-002 6.78891614e-002 5.56147769e-002 2.61498298e-002
      -2.48487480e-002 7.02038854e-002 8.36749524e-002 -3.89403477e-002
      -9.99259427e-002 2.85672247e-002 9.09974203e-002 2.65884530e-002
      -2.46389471e-002 4.37383503e-002 1.12929614e-002 -2.02373594e-001
      -2.27178872e-001 -8.41007084e-002 7.95825422e-002 1.30268648e-001
      9.79724377e-002 5.96318282e-002 2.70884167e-002 1.02143034e-001
      -3.84424776e-002 -6.83914796e-002 -5.62012270e-002 8.45132768e-002
      1.03684269e-001 3.20445113e-002 5.95778320e-003 1.23573805e-003
      -1.40210171e-003 2.14467179e-002 9.94319916e-002 2.61422060e-002
      -2.14196295e-002 -2.49785800e-002 -1.20498743e-002 3.42952758e-002
      -3.82514484e-002 -5.90860620e-002 -7.95103908e-002
      -7.81186810e-003 -5.98526672e-002 -1.19733579e-001
      -1.64073557e-001 -1.06104150e-001 -4.99627627e-002 5.19797206e-002
      1.82879996e-002 5.25863394e-002 7.27085099e-002 1.39341159e-002
      -1.71619952e-002 3.77954147e-003 1.94283854e-002 8.07947442e-002
      2.50631403e-002 3.28857685e-003 -8.56225099e-003 -2.14315262e-002
      -2.05040015e-002 -6.73730746e-002 -1.07704423e-001
      -6.00769520e-002 1.26960469e-004 -2.02499814e-002 -2.98383012e-002
      -5.14119938e-002 1.61758959e-002 3.25933434e-002 -5.00742570e-002
      -1.26464307e-001 -9.06114206e-002 -2.15789732e-002
      -5.10324463e-002 -2.10686047e-002 -1.11132272e-001
      -4.04324234e-002 3.65042128e-002 -1.12361852e-002 -9.32065398e-002
      -6.89394102e-002 -5.48987798e-002 2.91932542e-002 6.59887865e-002
      6.55807182e-002 6.35816157e-002 5.78094684e-002 -2.23158933e-002
      -1.02361962e-001 -8.66548792e-002 -4.98895235e-002
      -8.55178684e-002 -1.25259245e-002 -1.37346629e-002 6.08044956e-003
      7.56889507e-002 -5.89149829e-004 -1.04462408e-001 -1.55224860e-001
      -1.63378850e-001 -6.24728203e-002 -6.35785162e-002
      -2.44429171e-001 -1.97835550e-001 -2.86614131e-002 4.24446575e-002
      3.06363758e-002 2.71373019e-002 -1.08170025e-002 -4.75860230e-004
      -4.45091575e-002 -2.42461830e-001 -1.55642986e-001 5.42123802e-002
      1.86655506e-001 1.51097268e-001 1.14284083e-001 5.25578447e-002
      -1.63849488e-001 -1.30072802e-001 -1.40101895e-001
      -9.13091004e-002 7.90690705e-002 5.71573302e-002 -3.42277996e-002
      -8.68085250e-002 -1.56563610e-001 -9.95848402e-002
      -9.76334587e-002 -9.54745710e-002 -1.00896852e-002 1.70555398e-001
      1.67333558e-001 8.99833813e-002 5.18824123e-002 -5.61835878e-002
      -5.69783673e-002 -1.38904333e-001 -2.30684519e-001
      -1.83286205e-001 -2.90782284e-002 1.08130664e-001 6.77521303e-002
      2.82157883e-002 -1.97726693e-002 1.53378733e-002 3.67510654e-002
      -2.34402306e-002 -4.57969010e-002 2.90942797e-003 6.63693771e-002
      2.68150158e-002 -2.78747771e-002 -3.46776769e-002 -1.42735898e-001
      -1.42682552e-001 -1.13673456e-001 -3.89365628e-002 7.07789958e-002
      8.02534968e-002 -8.93623941e-003 -3.00019458e-002 -9.23318043e-002
      -1.53050665e-002 3.04423962e-002 6.55196086e-002 5.86987250e-002
      1.01772793e-001 8.68017450e-002 2.26532929e-002 -8.78507923e-003
      -1.82438027e-002</_></support_vectors>
  <decision_functions>
    <_>
      <sv_count>1</sv_count>
      <rho>-1.2393200578820902e+000</rho>
      <alpha>
        1.</alpha>
      <index>
        0</index></_></decision_functions></my_svm>
</opencv_storage>
