<?xml version="1.0"?>
<opencv_storage>
<my_svm type_id="opencv-ml-svm">
  <svm_type>C_SVC</svm_type>
  <kernel><type>LINEAR</type></kernel>
  <C>1.0000000000000000e-002</C>
  <term_criteria><epsilon>1.1920928955078125e-007</epsilon>
    <iterations>1000</iterations></term_criteria>
  <var_all>756</var_all>
  <var_count>756</var_count>
  <class_count>3</class_count>
  <class_labels type_id="opencv-matrix">
    <rows>1</rows>
    <cols>3</cols>
    <dt>i</dt>
    <data>
      1 2 3</data></class_labels>
  <sv_total>3</sv_total>
  <support_vectors>
    <_>
      4.81099961e-003 1.88980519e-003 1.67363544e-003 3.98437167e-003
      4.89537977e-003 -2.35637231e-003 -9.06592887e-003 -7.44257122e-003
      -1.22046820e-003 4.36487235e-003 6.85709855e-003 2.99136583e-002
      -6.70833001e-003 -7.29142223e-003 -1.38479108e-002 7.70346588e-003
      -1.11679118e-002 -3.77079123e-004 2.05289489e-005 -4.80148196e-003
      5.25900302e-003 1.44255185e-003 3.20881431e-004 1.14877883e-003
      -6.42065937e-003 -4.04412299e-003 -3.95908393e-003
      -9.49644949e-003 -3.34475897e-002 -7.57013960e-003
      -1.30146621e-002 -6.05034165e-006 2.18334571e-002 3.71254757e-002
      1.48453536e-002 4.60966118e-003 -1.49709207e-003 1.23420148e-003
      2.83445548e-002 6.07312983e-003 -4.60377522e-003 -7.76256574e-003
      7.40219560e-003 -4.95783752e-003 -3.83514445e-003 -4.54265485e-003
      1.30150083e-003 6.66205166e-003 1.22104743e-002 -2.24534678e-003
      -4.08362597e-003 6.97273714e-003 3.61008546e-003 -8.65042442e-004
      -2.62618084e-002 -4.29297611e-002 -1.52756581e-002
      -5.05153928e-003 1.29039856e-002 3.16385813e-002 4.55899052e-002
      1.51378755e-002 -7.08881021e-003 -2.80609354e-002 -2.82952320e-002
      -2.09253617e-002 -7.93423411e-003 9.05033201e-003 1.96858053e-003
      1.18652210e-002 1.55463547e-003 -1.43800266e-002 3.93685419e-003
      -7.61556393e-003 -1.24079706e-002 -1.04690557e-002
      -4.87028155e-003 5.08432684e-004 1.12338993e-003 9.61032137e-003
      8.03400483e-003 -3.59500176e-003 -1.52556766e-002 -1.60146970e-002
      3.12381820e-003 1.44304344e-002 3.55506949e-002 6.47002412e-003
      4.99494141e-003 8.56630690e-003 -1.50753623e-002 -2.49744039e-002
      -2.80619040e-002 -1.67820416e-002 7.20291631e-003 8.03198107e-003
      6.15086732e-003 -9.24761116e-004 -3.87262437e-003 -2.01048087e-002
      -2.78288797e-002 -1.99079998e-002 1.22655509e-003 8.24640505e-003
      2.42641550e-002 2.05824040e-002 -3.63684422e-003 -7.69532472e-003
      -2.98357545e-003 -2.12342129e-003 7.59860361e-003 3.53545323e-003
      1.99802015e-002 1.57441311e-002 5.14022028e-003 -8.28474469e-004
      -3.21705849e-003 1.21083958e-002 -1.78129766e-002 -5.43584079e-002
      -3.06829382e-002 2.30283979e-002 6.64073229e-002 4.97888178e-002
      3.74116600e-002 2.44183168e-002 -5.04301786e-002 -2.47729700e-002
      -3.32793454e-003 -4.77105845e-003 2.36859042e-002 1.93033181e-002
      5.55861217e-004 -3.10919303e-002 -6.84620962e-002 1.24080842e-002
      1.53138314e-003 -6.21320270e-002 -2.05523502e-002 9.03909560e-003
      8.38034153e-002 5.06444834e-002 3.37790735e-002 1.21646710e-002
      -7.59219844e-003 -4.62697819e-002 -9.06528533e-002
      -6.99222758e-002 1.12454481e-002 5.51566668e-002 5.18487804e-002
      2.53240652e-002 1.00989193e-002 -1.88859012e-002 -2.44223364e-002
      -5.40805906e-002 -4.12237644e-002 7.90257752e-003 1.36219123e-002
      5.38722938e-003 -9.17404238e-003 -1.11664804e-002 1.89486295e-002
      -8.91489536e-003 -7.73856863e-002 -1.32183144e-002 2.81636585e-002
      7.24099278e-002 6.52536303e-002 4.65451442e-002 3.32549326e-002
      4.55392292e-003 -2.07575876e-003 -2.89670378e-002 -1.65943205e-002
      1.18154539e-002 1.54551119e-002 2.10779645e-002 1.87856406e-002
      9.43519920e-003 -3.39291128e-003 -6.25001267e-003 -1.06870439e-002
      -1.38277775e-002 2.35370314e-003 4.74332180e-003 8.21940601e-004
      -2.16180505e-003 -3.16624122e-004 -7.09098903e-003
      -1.46748405e-002 -1.10365320e-002 -1.41124427e-002
      -5.01006795e-003 8.76610051e-004 8.94869585e-003 -2.61319173e-003
      -3.06868693e-003 -1.00676254e-004 1.10747095e-003 5.15658502e-003
      1.07600894e-002 4.88916365e-003 -2.02412941e-002 -6.94693648e-004
      -1.10474078e-003 4.13026108e-004 -4.02621925e-003 -2.30964553e-003
      8.22273456e-003 1.11898733e-002 3.13406624e-003 -2.99099125e-002
      -2.61758431e-003 -5.89791778e-003 -1.93006452e-003
      -1.77197084e-001 -1.02771588e-001 -5.63899130e-002 5.79854520e-003
      6.50818646e-002 1.66609942e-004 -2.64501590e-002 -8.69338661e-002
      -1.85947642e-001 -1.07591204e-001 -1.01364918e-001
      -9.25322846e-002 6.21615350e-002 7.88359195e-002 2.63990369e-002
      -1.19767133e-002 -4.05229405e-002 -1.02496669e-001
      -2.08868116e-001 -1.01873890e-001 5.28901024e-003 1.66332796e-001
      2.41173491e-001 5.57900183e-002 -2.68224515e-002 -8.95648599e-002
      -2.10444763e-001 -1.63705274e-001 -1.28632739e-001
      -3.52883525e-002 1.20084703e-001 1.50831982e-001 6.16456233e-002
      -4.46877070e-002 -9.20555592e-002 -1.60375133e-001
      -3.23517732e-002 -5.80112897e-002 -9.89264622e-002
      -1.21625783e-002 3.62464227e-002 3.07688732e-002 1.90992728e-002
      -2.57224929e-005 -1.79608986e-002 -1.17041655e-002
      -2.06314288e-002 -4.27811295e-002 -3.56975496e-002 1.79873500e-002
      -6.39846772e-002 -5.31257456e-003 -1.28272153e-003
      -4.39638924e-003 -6.17738105e-002 -7.21495450e-002
      -4.03570831e-002 9.82667878e-002 5.96640147e-002 2.23575234e-002
      -1.93846710e-002 -4.05645519e-002 -5.53461351e-002
      -1.32474350e-002 -2.25435570e-002 -2.83770449e-002
      -1.98169309e-003 1.90214384e-002 -7.02428147e-002 -1.77258290e-002
      -1.35839600e-002 -7.79373292e-003 1.32253708e-003 3.17958696e-003
      3.45531804e-003 2.78227404e-002 -7.09709618e-003 -7.55502144e-003
      7.40537047e-003 4.25960869e-003 3.80298565e-003 -2.28473946e-004
      1.08665891e-003 9.77460202e-003 3.54129113e-002 -1.16443075e-002
      -3.96869555e-002 4.40484425e-003 -1.98537996e-003 2.17129057e-003
      6.14755042e-003 4.13746201e-003 1.67072681e-003 2.58063711e-002
      -9.07413196e-003 -1.21252825e-002 5.30805858e-003 6.62278710e-003
      7.12697161e-003 2.73228018e-003 2.06333050e-003 2.14494509e-003
      1.92225017e-002 -8.52356572e-003 -2.46776808e-002 -1.33202120e-003
      1.52663502e-003 1.90902548e-003 -1.60780251e-001 -8.88004303e-002
      -1.79132025e-004 1.84927016e-001 2.33546987e-001 7.12992018e-003
      -7.65662119e-002 -1.22728661e-001 -1.84332564e-001
      -1.39229432e-001 -1.14749715e-001 -5.00122532e-002 1.43538997e-001
      1.33752435e-001 -3.76461931e-002 -1.07057430e-001 -1.28060251e-001
      -1.57128260e-001 -1.72549918e-001 -8.47078785e-002
      -4.50140936e-003 1.69911325e-001 2.08026201e-001 9.66880284e-003
      -1.27264977e-001 -2.09306225e-001 -2.32873559e-001
      -1.23979323e-001 -1.03820518e-001 -6.01039976e-002 1.05798699e-001
      9.46131945e-002 3.41971824e-003 -1.18183091e-001 -1.49552897e-001
      -1.55853257e-001 -3.12267710e-002 -3.14342193e-002
      -8.26756470e-003 1.26262993e-001 6.28034100e-002 -9.51768830e-003
      -3.40300351e-002 -3.34653482e-002 -3.37118730e-002
      -9.69962031e-003 -1.46539034e-002 -1.99637264e-002
      -2.72876881e-002 -4.85105859e-003 -6.55294433e-002
      -2.65873075e-002 -1.21929925e-002 -6.41451543e-003
      -2.17475984e-002 -1.20915212e-002 4.16006520e-003 2.92288195e-002
      3.09533048e-002 -7.69452518e-003 -3.01599391e-002 -2.51130499e-002
      -2.65768711e-002 -1.38288988e-002 -9.12475027e-003
      -2.65643261e-002 -9.41573270e-003 -5.98952081e-003
      -7.40184411e-002 -3.71011533e-002 -1.31147346e-002
      -8.28693900e-003 6.60506822e-003 4.68750065e-003 3.95959709e-003
      1.50786797e-002 -4.23342967e-003 1.55278423e-004 5.90047706e-003
      8.75703339e-003 9.25929192e-003 2.48817168e-003 3.44051165e-003
      3.07743670e-004 7.75059871e-003 -5.70690446e-003 2.19524722e-003
      2.86553288e-003 4.16652486e-003 3.04576661e-003 6.25574356e-003
      9.05050337e-003 9.77726374e-003 -8.94105341e-003 -9.57562029e-003
      -3.86358402e-003 8.59403226e-004 6.93636108e-003 9.97561030e-003
      2.69451481e-003 4.17514937e-003 -1.45742239e-003 -8.62854708e-004
      -4.29727603e-003 -2.16864006e-004 2.15120218e-003 2.91251484e-003
      4.08223830e-003 -1.07580952e-001 -4.44718190e-002 -5.22563932e-004
      9.59263593e-002 1.11031882e-001 1.24502331e-002 -6.55167699e-002
      -1.27214894e-001 -1.76723853e-001 -5.98749034e-002
      -3.65016274e-002 6.25202782e-004 7.69984052e-002 7.15499744e-002
      5.95264807e-002 -3.10667716e-002 -6.12537563e-002 -7.78743848e-002
      -6.71183094e-002 -3.13677974e-002 -1.48933213e-002
      -1.19513050e-002 -1.51332170e-002 -9.17484313e-002
      -6.60467222e-002 -7.44816065e-002 -9.39921215e-002
      -3.44402716e-003 2.16299295e-002 4.80048582e-002 3.79738510e-002
      2.00990923e-002 -2.91755516e-002 -2.93854065e-002 -3.07542216e-002
      -2.05696467e-002 -2.60594022e-003 1.40381008e-002 4.69457358e-002
      2.97658499e-002 4.44743037e-002 2.92436387e-002 -6.79765642e-003
      -9.82389878e-003 -1.09796617e-002 -2.51239771e-003 9.35499277e-003
      5.44275157e-003 -1.55516202e-002 -2.01100949e-002 -4.38239425e-002
      -2.44659465e-002 -8.46204441e-003 -5.35068335e-003 1.79505367e-002
      3.79731208e-002 8.40771124e-002 -2.28392682e-003 -1.39763048e-002
      -1.76750273e-002 -1.28322802e-002 -1.07167671e-002 3.23859788e-003
      -2.83737364e-003 -8.89605319e-004 -3.03621753e-004
      -1.47412587e-002 -4.58879247e-002 -6.06557578e-002
      -2.78726593e-002 -1.41684730e-002 -4.52575786e-003 3.29637574e-003
      8.07131175e-003 1.33747701e-002 -4.84536495e-003 1.84127502e-003
      -6.08862517e-003 -4.47750418e-003 2.76304921e-003 3.14993085e-003
      9.64456587e-004 1.40320254e-003 -1.23551255e-003 -2.53428495e-003
      1.98544329e-003 1.78614084e-003 4.06303268e-004 1.67838822e-003
      1.00635935e-003 2.58232700e-003 4.36975714e-003 1.08735524e-002
      -4.81114676e-003 -6.94073178e-003 -3.94370360e-003
      -2.82874797e-003 2.00008205e-003 3.44377151e-003 3.71000962e-004
      5.31302253e-003 -1.25509372e-003 -6.46970375e-003 3.68699222e-003
      9.82959569e-003 8.03075091e-004 1.65174820e-003 6.22943917e-004
      7.21419696e-003 1.86107475e-002 3.39287594e-002 2.63602398e-002
      -4.19252291e-002 -5.71516752e-002 -1.11939786e-002
      -2.65131285e-003 1.13928155e-003 5.65821156e-002 8.38356838e-002
      1.08831190e-001 5.77924401e-002 1.99588877e-003 -3.10536791e-002
      -4.90856124e-003 1.63552561e-003 2.75910851e-002 9.87548102e-003
      1.43215498e-002 2.24571526e-002 2.47968975e-002 -4.51732241e-002
      -8.42160583e-002 -4.94562350e-002 -1.60250962e-002
      -7.67797290e-004 3.26477997e-002 4.69330363e-002 4.71843146e-002
      2.74943840e-002 -2.12802198e-002 -6.13846630e-002 -5.78352846e-002
      -2.19298974e-002 5.10312291e-003 3.61296237e-002 6.11763671e-002
      9.56169963e-002 -1.16889609e-003 4.34754044e-003 -3.62088042e-003
      -3.03297071e-003 -2.68154079e-004 1.80090033e-002 3.18400934e-003
      5.99981332e-003 1.85561385e-002 -1.35593330e-002 -3.36861201e-002
      -4.53759357e-003 -4.82398784e-003 -2.54670344e-003 6.06295606e-003
      1.64468996e-002 1.76949650e-002 1.47387479e-002 -1.58220492e-002
      -1.85261797e-002 -6.71996688e-003 -1.23177348e-002 1.35219409e-004
      1.80938207e-002 -9.18747950e-003 -1.49351591e-002 -2.19970867e-002
      -1.76911689e-002 -4.15469222e-002 1.83379184e-002 1.04784509e-002
      7.27893598e-003 9.20825172e-003 1.58629392e-003 9.03372094e-003
      1.67167354e-002 -9.52599570e-003 -3.91345751e-003 1.60083715e-002
      3.43521917e-003 3.65739525e-003 3.14577203e-003 1.12968334e-003
      1.26793515e-002 8.28021392e-003 -4.93454561e-003 4.13696375e-003
      2.09111609e-002 9.90496948e-004 2.38709361e-003 2.15195050e-003
      1.03092473e-003 1.47106694e-002 -6.11606333e-003 -9.64637473e-003
      -5.92287537e-003 2.55144928e-002 1.07125295e-002 4.17448580e-003
      2.63669388e-003 2.16668192e-003 1.35260187e-002 9.80521366e-003
      -9.83789004e-003 1.37788663e-003 2.21649650e-002 2.17863848e-003
      1.89175225e-005 3.13155120e-003 1.29829510e-003 4.28070873e-003
      8.10710713e-003 2.92493030e-002 7.86746107e-003 -2.25223489e-002
      -3.58793810e-002 -1.30782258e-002 -8.74955487e-003
      -3.57718742e-003 -2.07261508e-003 7.86070898e-003 3.44409347e-002
      1.21228462e-002 -8.81422777e-003 -4.12599519e-002 -1.00014526e-002
      -3.67100048e-003 -6.43639779e-003 -1.47081781e-002
      -8.12737644e-003 2.91235223e-002 1.32490043e-002 -5.94767742e-003
      -9.20719933e-003 -3.69708822e-003 -7.15730153e-003
      -2.70837806e-002 -4.36940826e-002 -1.35704773e-002 5.40523883e-003
      1.49008343e-002 6.39124354e-003 -1.01493550e-002 -8.34765099e-003
      -1.57621559e-002 -2.73581338e-003 -1.89738143e-002
      -4.96644760e-003 -6.41174009e-003 1.18314130e-002 1.98229235e-002
      -6.03886961e-004 1.06028905e-002 1.72904730e-002 -1.20672192e-002
      -1.69717688e-002 -2.05353294e-002 -1.55911949e-002
      -6.02811063e-003 2.89245676e-002 1.91727877e-002 2.07967311e-002
      1.99851934e-002 -2.15225350e-002 -3.31594199e-002 -1.38473148e-002
      -3.68711725e-003 1.94885302e-002 1.20369811e-002 -3.89224477e-003
      -7.42111867e-003 -5.62596880e-003 -1.89285614e-002
      -2.78507024e-002 -2.26136334e-002 -1.11157196e-002 6.14515692e-003
      1.07933553e-002 2.97788810e-003 4.22740495e-003 2.52938655e-004
      -4.07538435e-004 8.78844969e-003 -2.30765622e-002 -1.56554822e-002
      -6.48099324e-003 2.27546059e-002 1.55400392e-002 9.72761679e-003
      1.00580361e-002 1.50262155e-002 1.93366650e-002 -8.54606740e-003
      -2.34866142e-002 3.40901851e-003 1.38259223e-002 1.51710701e-003
      5.96769899e-003 1.20247221e-002 -4.75670956e-003 -6.19041035e-003
      -2.77497638e-002 -1.68328006e-002 -1.68428593e-003 1.90508850e-002
      5.56094013e-003 6.98171044e-003 8.10777361e-004 6.91592228e-003
      1.14737917e-002 -1.34709794e-002 -1.24607061e-003 1.30790453e-002
      1.74779184e-002 4.73810313e-003 8.18338804e-003 6.94250595e-003</_>
    <_>
      -2.31981911e-002 8.39655939e-003 2.58298907e-002 3.49302441e-002
      -1.15041146e-002 1.15182837e-002 -1.32140964e-002 -1.58487037e-002
      -2.97462065e-002 -1.25151919e-002 3.33166011e-002 4.58755046e-002
      2.51600444e-002 -2.74710618e-002 1.15490546e-002 -4.84533561e-003
      -5.31606423e-003 -2.20420454e-002 -2.68033259e-002
      -5.69878612e-004 2.47227978e-002 3.96740474e-002 -1.09003130e-002
      2.59163398e-002 -1.05503807e-002 -1.57485157e-002 -3.12989801e-002
      1.49140693e-002 6.82048872e-002 8.71605650e-002 7.45777488e-002
      3.53123923e-003 6.16636239e-002 4.80361097e-002 3.31119001e-002
      7.91707914e-003 -2.25481167e-002 6.36325497e-003 -5.87471342e-003
      -3.63608375e-002 -7.65742138e-002 -5.47477184e-003
      -1.48063176e-003 -4.88028582e-003 -2.85708811e-002
      -8.38057022e-004 1.70373302e-002 -3.70975933e-003 -2.01551672e-002
      -6.95363581e-002 2.26442646e-002 1.94464773e-002 2.79338714e-002
      7.17929332e-003 3.42431031e-002 7.30276033e-002 7.24510476e-002
      5.92242833e-003 -4.52313423e-002 7.71965012e-002 9.23723355e-002
      6.66728467e-002 4.04258557e-002 7.00865015e-002 7.84327239e-002
      5.25831841e-002 -1.33851171e-002 6.62356615e-004 1.33279458e-001
      1.41933516e-001 1.19282044e-001 1.04590937e-001 -2.00346019e-002
      -3.31692630e-003 -8.72326456e-003 -1.83816925e-002
      -8.78116190e-002 4.21250472e-003 -1.12398481e-002 4.66233958e-003
      -1.19533520e-002 -2.42187548e-002 -3.09437374e-003 4.34420444e-002
      -3.48479045e-003 -7.37994462e-002 2.12925151e-002 -3.56666651e-003
      -8.37041158e-003 -2.21637115e-002 3.63587849e-002 4.96287495e-002
      3.86677496e-002 -4.33464162e-003 -4.26073233e-003 1.35119170e-001
      1.04825944e-001 8.27408507e-002 5.57608791e-002 1.96350068e-002
      3.25385258e-002 7.05080405e-002 1.93431936e-002 -1.44926589e-002
      1.29346564e-001 1.09807327e-001 6.32401034e-002 3.34325954e-002
      -4.16915752e-002 -2.58573443e-002 -4.15577628e-002
      -7.30869453e-003 -4.73590158e-002 -3.63563001e-002
      -3.29180658e-002 -3.30103785e-002 -4.27215099e-002
      -1.05637359e-002 2.03742404e-002 5.76619506e-002 7.70024359e-002
      -1.34039181e-003 3.05974875e-002 2.35735960e-002 2.02245042e-002
      -4.74853441e-004 -2.65813675e-002 -1.60866398e-002
      -1.79764144e-002 5.39129861e-002 -5.90458373e-003 -3.02497353e-002
      -3.34439576e-002 -1.99282859e-002 -2.95776520e-002 2.00702995e-002
      3.41800414e-002 6.09536171e-002 8.67794082e-002 3.73577587e-002
      5.50425425e-002 2.80150883e-002 2.90665179e-002 1.97831970e-002
      -1.36287259e-002 5.47877466e-003 2.20004516e-003 -5.56862541e-002
      -4.59168032e-002 8.50230306e-002 6.66545779e-002 2.42112130e-002
      -8.01588409e-003 -1.31946094e-002 4.47200844e-003 -3.15112844e-002
      -1.14587083e-001 -1.14509426e-002 1.54224917e-001 8.45464170e-002
      2.66382266e-002 1.24565850e-004 1.47516979e-002 6.77330792e-003
      -8.34919326e-003 1.33139174e-002 1.30841229e-002 1.18872978e-001
      6.79870397e-002 3.56404036e-002 2.19270140e-002 -6.14223210e-003
      -9.36726015e-003 -3.68915834e-002 -3.96930128e-002
      -6.96884189e-003 1.53128490e-001 5.78211620e-002 1.39710754e-002
      2.85802246e-003 -2.67983377e-002 -5.18219545e-003 -2.54390799e-002
      -1.12057328e-001 1.68032050e-002 1.34569511e-001 1.40310479e-002
      -1.67027034e-003 -1.81216430e-002 -4.39663380e-002
      -2.43788585e-002 -1.97771545e-002 -9.89883393e-002 3.34747210e-002
      1.80751964e-001 2.78215650e-002 -8.05362687e-003 -3.08379699e-002
      -2.32264288e-002 -2.30023433e-002 -5.08802831e-002
      -1.20281860e-001 5.93681000e-002 1.52209193e-001 2.28122529e-003
      -2.21852716e-002 -2.20261645e-002 -5.91921881e-002
      -5.10558784e-002 -6.12887777e-002 -8.61099288e-002 3.94289121e-002
      1.71468556e-001 -6.35954691e-003 -3.39022763e-002 -5.31611331e-002
      -3.99649963e-002 -3.25018205e-002 -4.47008982e-002 2.86072283e-003
      -1.57195255e-002 -4.55470532e-002 -3.64156179e-002
      -2.61446349e-002 -3.58032137e-002 -7.07581360e-003
      -5.06813638e-003 1.29460664e-002 1.03771769e-001 5.28808795e-002
      4.61660011e-006 -9.70457867e-003 -7.99449906e-003 -1.15254736e-002
      -4.38832678e-002 -3.53545956e-002 -6.30145222e-002 3.37791219e-002
      4.44452390e-002 -1.38735985e-002 -3.99396829e-002 -2.50764173e-002
      -3.81854437e-002 -3.24353017e-002 -3.54630686e-002
      -1.54125020e-002 8.80915970e-002 5.00208326e-002 4.44027148e-002
      -2.99361944e-002 -2.82876939e-002 -2.68445089e-002
      -9.11798235e-003 -2.37163883e-002 -4.70445938e-002 2.98900381e-002
      3.81403677e-002 3.52737457e-002 8.97027552e-003 -1.88179896e-003
      -4.58038133e-003 -1.90556757e-002 -3.02806366e-002
      -6.71696886e-002 -4.24464606e-002 2.27713995e-002 7.95050114e-002
      -1.23330988e-002 -2.05290634e-002 -1.53129417e-002
      -2.43069399e-002 -3.98823060e-002 -5.45242578e-002 8.16529617e-002
      3.49767879e-002 2.10694633e-002 -2.18092520e-002 -2.24784072e-002
      -2.11848281e-002 -2.44553480e-002 -3.86946388e-002
      -7.57288784e-002 4.93108816e-002 5.50246099e-003 2.06043106e-003
      -2.59354804e-002 -2.68222075e-002 -2.16466710e-002
      -1.89597104e-002 -2.33848859e-002 -6.35598451e-002
      -9.30381566e-002 9.24616754e-002 7.00802952e-002 -2.52177007e-002
      -2.35621240e-002 -1.82568934e-002 -4.19990309e-002
      -4.15321402e-002 -7.81020001e-002 -5.74424751e-002 5.75127639e-002
      1.10201329e-001 -3.40870023e-002 -3.53463627e-002 -4.28661816e-002
      -1.28751220e-002 -2.83399802e-002 -8.74849930e-002 2.41715722e-002
      7.55692795e-002 -2.60902327e-002 -2.77892221e-002 -1.82511751e-002
      -1.10311080e-002 -4.30897549e-002 -5.64413555e-002
      -1.14796482e-001 5.43514974e-002 5.58523685e-002 -6.81892852e-004
      -4.38695662e-002 -3.26028988e-002 -4.18587066e-002
      -3.96998264e-002 -4.46316600e-002 -7.52686188e-002
      -3.09472787e-003 1.56354122e-002 -1.36447484e-002 -3.85783464e-002
      -2.51510832e-002 -3.44678089e-002 -3.77547927e-002
      -4.93721254e-002 -4.16935422e-002 1.02797322e-001 4.41677421e-002
      3.27294841e-002 -3.66949104e-002 -3.27075794e-002 -3.10862735e-002
      -4.39643189e-002 -4.21569049e-002 -6.13289028e-002 2.24911235e-002
      1.84721500e-002 7.39484187e-003 -3.73007394e-002 -3.15611959e-002
      -4.18272316e-002 -3.83556969e-002 -3.28039974e-002 1.67966522e-002
      9.46957320e-002 3.72145995e-002 6.95982799e-002 -3.36522572e-002
      -3.80605087e-002 -4.36173193e-002 -2.73445509e-002
      -4.21426743e-002 -4.81692143e-002 1.21001393e-001 5.35992980e-002
      -1.59157477e-002 -3.72070223e-002 -2.83289123e-002
      -2.40603536e-002 -2.16821451e-002 -3.33370306e-002
      -6.90893382e-002 6.68386519e-002 1.74842700e-002 -4.40292135e-002
      -3.13398987e-002 -2.02863496e-002 -1.66575108e-002
      -3.09146978e-002 -3.12800780e-002 -8.35339772e-004 9.73951295e-002
      4.37505022e-002 -3.33004743e-002 -3.94657180e-002 -3.23365405e-002
      -3.07876691e-002 -1.81799512e-002 -3.11922617e-002
      -5.51942773e-002 6.81357756e-002 1.32298227e-002 -7.54171759e-002
      -2.56432109e-002 -1.61372498e-002 -1.57832392e-002
      -4.57269279e-003 -1.78979263e-002 -7.06231669e-002 8.71375278e-002
      7.23124072e-002 -3.93352471e-002 -1.03408266e-002 -4.18978184e-003
      -1.79272227e-003 -3.22310589e-002 -5.24927191e-002
      -1.15292378e-001 8.46599266e-002 6.42127097e-002 -2.30863709e-002
      -2.72854958e-002 -2.08015461e-002 -2.83308234e-002
      -7.44096842e-003 -2.42403708e-002 -9.00021866e-002 8.95551816e-002
      6.77722692e-002 -5.45864552e-002 -1.40979923e-002 -8.03426839e-003
      -3.72462417e-003 -4.28538695e-002 -7.52835870e-002
      -1.28288656e-001 7.40406886e-002 5.65490834e-002 -6.41498193e-002
      -3.92835662e-002 -2.75013093e-002 -3.69400643e-002
      -3.78718674e-002 -3.08381729e-002 -4.32720184e-002
      -2.87381513e-003 -9.68071911e-003 -1.90924704e-002
      -4.00595330e-002 -3.53475660e-002 -3.97142880e-002
      -2.10640412e-002 -6.17908873e-003 6.14147633e-002 7.76974484e-002
      2.31970847e-002 3.90264951e-002 -2.35598348e-002 -3.33427973e-002
      -3.49042676e-002 -3.63807157e-002 -2.64489837e-002
      -2.19855364e-002 -1.69067569e-002 -4.00749547e-003 3.83676658e-003
      -4.39977460e-002 -3.30710746e-002 -3.84904556e-002 1.15337670e-002
      4.52496149e-002 1.05681136e-001 6.23281971e-002 1.86190866e-002
      3.84052284e-002 -1.25020901e-002 -1.92202218e-002 -1.06212078e-002
      -1.03841452e-002 8.06896668e-003 7.81740472e-002 1.24173254e-001
      5.09143993e-002 -1.26137463e-002 -2.00567078e-002 -1.91500895e-002
      -1.75364632e-002 -4.78902739e-003 -1.39556881e-002
      -1.83233023e-002 6.79579824e-002 2.26771086e-002 -6.39152825e-002
      -1.77321453e-002 -8.19430407e-003 -2.84229964e-003
      -1.77647697e-003 2.24369969e-002 1.15035444e-001 7.99432993e-002
      1.98005382e-002 -3.79001610e-002 -2.54353099e-002 -2.28452664e-002
      -1.04774516e-002 -1.27895121e-002 -3.38087380e-002 1.90198794e-002
      2.86230892e-002 2.10161251e-003 -9.39636230e-002 -3.14702429e-002
      -1.68988258e-002 -5.00510586e-003 -1.10575382e-003
      -2.11793445e-002 -6.16238415e-002 1.47591025e-001 1.02112994e-001
      -4.50723954e-002 -1.21471975e-002 -3.15712765e-003
      -1.22844591e-004 -2.76160520e-002 -5.70798554e-002
      -1.16461754e-001 8.79010186e-002 9.62374434e-002 -5.98687939e-002
      -3.22838090e-002 -1.77086685e-002 -2.51712389e-002
      -1.42812058e-002 -4.71398458e-002 -3.70997153e-002 9.93108600e-002
      7.04867914e-002 -6.97746426e-002 -2.29770541e-002 -1.24371499e-002
      -9.39298142e-003 -4.16715927e-002 -7.63047338e-002
      -9.90076065e-002 6.17126413e-002 6.19576387e-002 -8.19452703e-002
      -4.13561836e-002 -2.44966652e-002 -3.55722457e-002
      -1.94765162e-002 -2.55647651e-003 2.20475141e-002 -4.38708346e-003
      -1.19418185e-002 4.84123118e-002 -1.73469130e-002 -1.74448937e-002
      -2.71038450e-002 4.14830074e-002 7.80250728e-002 1.21664807e-001
      4.37278822e-002 8.78961105e-003 5.77701628e-002 2.51508709e-002
      6.39347173e-003 1.34161571e-002 -3.97948548e-002 -1.69238709e-002
      4.50534932e-003 -3.61167863e-002 -6.14007488e-002 2.50257161e-002
      -1.17775640e-002 -3.50848362e-002 -5.36967926e-002 3.77096422e-002
      6.92627728e-002 1.02908708e-001 2.26614270e-002 -5.27442768e-002
      3.45247500e-002 4.28594574e-002 8.81824642e-003 1.36855962e-002
      2.98756100e-002 6.31470159e-002 1.40154645e-001 1.08382925e-001
      1.67728756e-002 2.76304805e-003 2.17941264e-003 5.75264683e-004
      1.12179071e-002 3.42209078e-003 -2.97886762e-003 6.84446543e-002
      3.93157005e-002 1.67287979e-002 -5.13923131e-002 -1.44502977e-002
      -4.07722453e-003 1.75984332e-003 3.71689424e-002 5.91436252e-002
      1.11640923e-001 7.14772642e-002 -8.98005143e-002 -2.25173775e-002
      -1.20901864e-003 -2.39666644e-003 2.22432073e-002 -2.40004528e-003
      -9.11055133e-003 6.31285682e-002 3.81008014e-002 -3.52302827e-002
      -5.27338237e-002 -1.78806018e-002 -1.85333360e-002
      -9.11443587e-003 -9.85454302e-003 -2.03979928e-002 6.59985691e-002
      1.30444363e-001 8.36619884e-002 -3.13909687e-002 -1.26874400e-002
      -5.91555424e-003 -7.90528860e-003 -2.80507486e-002
      -4.76963371e-002 -2.00897846e-002 8.51405933e-002 5.18827476e-002
      -4.85303402e-002 -2.82733925e-002 -1.50233321e-002
      -2.38811746e-002 -1.00114057e-002 1.05361175e-002 9.86951441e-002
      1.07665189e-001 4.46564518e-003 -2.82600075e-002 -7.31441006e-003
      -1.37043595e-002 -1.58391427e-002 -3.74105349e-002
      -3.54232490e-002 1.81808658e-002 5.90077303e-002 -6.13402016e-002
      -6.52977526e-002 -3.43218967e-002 -2.62461659e-002
      -3.29142362e-002 -1.41537674e-002 1.39697110e-002 4.70765084e-002
      5.28282598e-002 -5.37149794e-003 6.97649643e-002 2.82516330e-002
      1.47242157e-003 -2.46555433e-002 6.75611794e-002 8.45815986e-002
      1.02462783e-001 6.33805916e-002 -1.20790266e-002 9.17072073e-002
      8.14619064e-002 6.63216114e-002 6.52612597e-002 -2.79544778e-002
      -1.06203761e-002 1.99801214e-002 3.32606286e-002 -4.55803983e-002
      6.08217344e-003 -1.13429856e-002 -1.04992166e-002 -3.40886340e-002
      -1.34614324e-002 -1.59956422e-002 -1.36462022e-002
      -6.90702396e-003 -4.85678986e-002 1.58325359e-002 3.15876678e-003
      1.08941235e-002 -7.12654844e-004 7.97169879e-002 9.39300433e-002
      1.21347070e-001 8.30030963e-002 -2.67121824e-004 6.10836223e-002
      4.08571959e-002 4.29890417e-002 6.55659586e-002 5.40316515e-002
      7.20253363e-002 8.61185417e-002 4.91414368e-002 4.06869464e-002
      5.39243147e-002 4.48576808e-002 3.65034826e-002 3.98669131e-002
      -2.01844517e-003 -4.51153098e-003 -1.64155737e-002
      -1.19944904e-002 -1.90909654e-002 3.43599692e-002 2.32387311e-003
      5.03369700e-003 1.39885675e-003 -3.83720058e-003 -1.56390648e-002
      -3.98354493e-002 -3.72134079e-003 -1.90234240e-002 3.19094099e-002
      8.45022593e-003 1.01919845e-002 -3.90880887e-004 5.34177572e-002
      8.85781050e-002 1.24676585e-001 8.45191330e-002 4.19919081e-002
      6.07774965e-002 4.55111563e-002 3.06865722e-002 3.08288783e-002
      1.98300499e-002 4.70355526e-002 7.43105337e-002 2.58579403e-002
      -4.53134850e-002 5.72596863e-003 -8.22496600e-004 7.27930898e-003
      1.02411285e-002 1.63159799e-002 2.23468766e-002 -1.60708267e-003
      2.97233532e-003 -4.07056920e-002 4.62152772e-002 1.37586854e-002
      1.91216879e-002 2.45888717e-003 1.16522703e-002 4.06190120e-002
      2.22213473e-002 -2.20229384e-002 -4.97523434e-002 2.36616619e-002
      -6.79763546e-003 2.26290524e-003 -5.27478615e-003</_>
    <_>
      -4.15710509e-002 -1.27990721e-002 1.55007318e-002 5.64564392e-002
      1.29300635e-002 1.81929283e-002 -1.87826902e-002 -1.84115320e-002
      -3.94372381e-002 -3.90554033e-002 -3.15641309e-003
      -2.26351968e-003 4.81797457e-002 1.08545832e-002 2.91665122e-002
      -3.02645676e-002 -1.02824690e-002 -3.87109965e-002
      -4.27175313e-002 -1.90125443e-002 1.30102551e-002 6.82632551e-002
      3.23989652e-002 2.78501529e-002 -2.23851241e-002 -2.90835984e-002
      -4.56912108e-002 -7.44960783e-003 6.42983764e-002 4.55996767e-002
      9.80512127e-002 4.18817289e-002 3.87729891e-002 -2.62649078e-002
      -1.26137966e-002 -2.54798885e-002 -3.46650146e-002
      -6.30027009e-003 -4.65875082e-002 -1.25362175e-002
      -2.29478758e-002 1.64243169e-002 -2.04152539e-002 -1.66295972e-002
      -3.87658551e-002 -9.69279092e-003 3.15911719e-003 -2.99235303e-002
      -2.53642648e-002 -2.15665121e-002 2.15077102e-002 -8.43338855e-003
      -1.18941115e-002 -1.33973518e-002 4.05456796e-002 1.00410171e-001
      6.22695461e-002 3.94104011e-002 -8.37484188e-003 4.32389826e-002
      1.18398545e-002 1.82526689e-002 1.88055485e-002 8.71630460e-002
      1.04988217e-001 6.05450012e-002 4.55824845e-003 2.12623123e-002
      1.01671241e-001 9.34826508e-002 8.09707195e-002 9.86431912e-002
      -2.68844590e-002 -9.06904880e-003 -9.40553658e-003 6.59156358e-003
      -5.14546260e-002 -1.09672900e-002 -2.28609778e-002
      -2.12655067e-002 -2.70492919e-002 -2.59197019e-002
      -5.19598322e-003 5.39101623e-002 1.82181504e-002 -7.57954344e-002
      -3.10865957e-002 -2.23603491e-002 -1.20646833e-002
      -3.05545740e-002 5.65075502e-002 6.54292032e-002 5.73686659e-002
      2.92764008e-002 -7.54130539e-003 7.86704794e-002 7.89501891e-002
      6.71469569e-002 6.19656369e-002 3.67977135e-002 5.13772219e-002
      9.75170434e-002 3.32653411e-002 -1.42834000e-002 7.03038350e-002
      7.47975111e-002 5.44800088e-002 3.65334675e-002 -5.45727760e-002
      -4.12259921e-002 -5.48268370e-002 2.73359604e-002 -9.04664863e-003
      -2.71397028e-002 -5.28544821e-002 -5.13761491e-002
      -5.93491085e-002 -4.50637378e-002 1.17716780e-002 7.69302770e-002
      1.20843366e-001 2.00294759e-002 -3.31621617e-002 -5.81303202e-002
      -5.57031073e-002 -5.68794236e-002 9.29841027e-003 -1.04552172e-002
      -3.56414802e-002 8.13432485e-002 2.65634116e-002 -1.51046310e-002
      -4.47006263e-002 -4.10933327e-003 3.50555144e-002 -2.01144088e-002
      3.19273234e-003 1.03436999e-001 1.34968936e-001 1.01310611e-001
      -2.97650341e-002 -5.55022694e-002 -4.24874835e-002
      -1.39665324e-002 -1.51985763e-002 4.39424887e-002 8.55236799e-002
      5.24374247e-002 -3.03838067e-002 1.40292132e-002 -1.13501092e-002
      -2.26904601e-002 -3.07482556e-002 2.21568197e-002 3.41163464e-002
      2.98890602e-002 -4.46895249e-002 -2.30901819e-002 8.50759447e-002
      6.45780563e-002 3.78897525e-002 2.57157050e-002 -2.67790295e-002
      2.54282821e-003 7.35082999e-002 7.41923451e-002 3.00590321e-002
      1.89102460e-002 -3.41993459e-002 -4.18678448e-002 -3.48476954e-002
      -1.47333136e-002 -6.39066519e-003 1.52085852e-002 1.11935837e-002
      5.93344099e-004 9.36920121e-002 2.30986141e-002 -7.59731885e-003
      -6.33674441e-003 -7.74205662e-003 2.09415588e-003 -1.31655941e-002
      -8.18875805e-002 -1.91101879e-002 7.68551603e-002 2.73728166e-002
      1.54654402e-002 4.12165839e-003 -3.33495028e-002 -8.70860531e-004
      2.13937052e-002 -4.28814776e-002 3.72941121e-002 1.39910460e-001
      3.44345942e-002 6.90458000e-006 -2.02372167e-002 -2.06332803e-002
      -2.62563974e-002 -3.53292003e-002 -1.03386417e-001 3.15671489e-002
      1.28449097e-001 2.09030453e-002 -4.17704880e-003 -8.60016700e-003
      -4.98566851e-002 -4.00855355e-002 -3.91728319e-002
      -6.89886436e-002 2.89015248e-002 1.68925464e-001 1.34512233e-002
      -1.65637285e-002 -3.96695919e-002 1.41350865e-001 4.48405854e-002
      -1.94858722e-002 1.88779030e-002 -3.62031497e-002 -2.84102485e-002
      -2.80691851e-002 5.28552122e-002 1.64314330e-001 8.99818689e-002
      7.01209009e-002 8.26212987e-002 6.55616298e-002 3.05331051e-002
      -3.49634290e-002 -2.75881011e-002 1.15102921e-002 9.09800157e-002
      1.65916085e-001 3.53433378e-002 -1.07768930e-001 -1.24819607e-001
      -1.69442683e-001 -5.45320176e-002 -3.17330509e-002 5.09567559e-002
      1.78586602e-001 1.27504423e-001 8.95529613e-002 -2.60960590e-003
      -8.85703880e-003 -7.61589631e-002 -3.71783711e-002
      -1.90107878e-002 4.44899537e-002 1.30202681e-001 1.37130851e-002
      2.48136483e-002 6.61457926e-002 8.69185030e-002 4.31018732e-002
      -9.35173687e-003 -3.20711955e-002 -2.67932583e-002
      -2.85064219e-003 -2.79286224e-002 -2.06194688e-002
      -7.61065818e-003 2.08087619e-002 1.37697477e-002 1.16554312e-001
      -1.39775705e-002 -3.65957916e-002 -3.45164873e-002 4.25988212e-002
      4.74029370e-002 1.72255486e-002 1.50481276e-002 -4.05821949e-003
      -1.23547995e-002 -2.64344793e-002 -4.54969704e-003 2.60428265e-002
      -3.03182639e-002 -2.29013450e-002 -2.16040667e-002 4.31091897e-002
      -6.62715547e-003 6.92042336e-002 -9.85210016e-003 -2.66163405e-002
      -3.42795812e-002 -2.79836785e-002 -3.22191156e-002
      -4.93047349e-002 -1.19955935e-001 7.38571733e-002 5.10885566e-002
      -2.51809377e-002 -2.43620984e-002 -2.36226451e-002
      -3.96032855e-002 -4.07448038e-002 -6.74967766e-002
      -5.59302196e-002 7.30980784e-002 1.34776443e-001 -2.36879773e-002
      -2.41302699e-002 -3.76550369e-002 -3.33849564e-002
      -4.42642309e-002 -6.41812980e-002 -3.33896838e-002 6.56475499e-002
      -1.09846545e-002 -2.56426875e-002 -2.59815566e-002
      -2.72561889e-002 -5.20455837e-002 -5.47183976e-002
      -9.16893110e-002 5.47179915e-002 7.35467300e-002 3.45032401e-002
      -2.66149212e-002 -3.29732113e-002 -4.53767441e-002 1.04818597e-001
      1.75051261e-002 -1.16858453e-001 -1.74985290e-001 -1.86608732e-001
      -1.51303289e-002 1.95642039e-002 7.41123110e-002 1.37403131e-001
      8.73253271e-002 6.37761950e-002 -1.27130449e-002 -2.76324712e-002
      -6.88291341e-002 4.32771742e-002 3.29642780e-002 6.06952794e-002
      1.04943782e-001 1.27914131e-001 2.30008438e-002 -9.39147845e-002
      -1.40960515e-001 -1.66671515e-001 7.29774917e-003 7.48061463e-002
      1.95992038e-001 1.97256669e-001 6.65765181e-002 4.61048037e-002
      5.15800118e-002 7.32441666e-003 -2.02182978e-002 7.36171901e-002
      7.87736624e-002 1.17846444e-001 1.08852282e-001 2.14397465e-003
      2.58892728e-003 -1.57365687e-002 1.04662646e-002 -2.09568185e-003
      -2.08159350e-002 -1.97696593e-002 -1.35716889e-002
      -4.08666255e-003 -2.56838799e-002 -2.26628892e-002
      -1.94730945e-002 8.22689533e-002 1.98624749e-002 1.96872987e-002
      -7.99115282e-003 -2.08018534e-002 -2.47188844e-002
      -2.32059099e-002 -2.91986410e-002 6.07493287e-003 1.07106298e-001
      3.40021253e-002 -2.40994114e-002 -1.30843706e-002 -8.49972200e-003
      -1.38387484e-002 -1.65340174e-002 -1.93750914e-002 1.05820904e-002
      7.17369318e-002 2.04595644e-002 -1.45079717e-002 -3.13461409e-003
      -1.76550373e-002 -2.75119767e-002 -2.78552901e-002
      -2.94761062e-002 -4.92371395e-002 5.05813397e-002 5.66096976e-002
      -4.91954982e-002 -1.87966321e-002 -2.12463662e-002
      -2.26523653e-002 -4.58047912e-002 -5.33533804e-002
      -9.63934213e-002 9.64713171e-002 8.14551935e-002 -1.94125548e-002
      -2.29767710e-002 -2.62590032e-002 -3.99981402e-002
      -2.52401698e-002 -3.15109454e-002 -7.01218024e-002 9.77364406e-002
      6.66114315e-002 -7.03301504e-002 -2.22100224e-002 -2.14069653e-002
      -2.73520444e-002 -5.64130284e-002 -7.81009197e-002
      -1.14275903e-001 9.55446139e-002 8.12111944e-002 -6.18060417e-002
      -3.28093693e-002 -2.68114321e-002 -4.91973497e-002 6.05199784e-002
      -1.28942290e-002 -7.88058564e-002 -9.46349204e-002
      -1.08203158e-001 -2.74999384e-002 2.68059480e-003 9.55984592e-002
      1.54154673e-001 7.10751722e-003 -1.26507571e-002 3.82115715e-003
      6.43260032e-003 -1.20640472e-002 -6.85738493e-003 -6.27812597e-006
      3.32665928e-002 5.11851534e-002 1.01786666e-002 -9.53338295e-003
      -2.78531350e-002 3.45411152e-002 4.14756685e-002 9.06143188e-002
      -8.30233097e-003 1.75731946e-002 4.64019403e-002 -2.40137316e-002
      -2.10153386e-002 6.08334551e-003 5.09777255e-002 2.84707472e-002
      7.55436122e-002 -3.16378078e-003 -1.04206791e-002 -1.04769645e-002
      -2.35943384e-002 -2.17369646e-002 1.83792580e-002 1.14480041e-001
      2.68859025e-002 -2.11045966e-002 -1.01282932e-002 -5.62426820e-003
      -1.33031532e-002 -1.58549007e-002 -2.86584608e-002
      -4.59629344e-003 6.59074262e-002 1.92613099e-002 -3.20863202e-002
      -5.60620101e-003 -9.94049292e-003 -1.48839969e-002
      -3.29608731e-002 -2.63035577e-002 1.34623544e-002 1.06022805e-001
      4.17715535e-002 1.58350468e-002 -8.50693136e-003 -9.51072387e-003
      -1.82802230e-002 -1.21885333e-002 -2.87998170e-002 2.87213810e-002
      3.37958001e-002 2.49581449e-002 -3.51320393e-002 -1.53674511e-003
      2.57025380e-003 -1.99221587e-003 -1.07983490e-002 -2.21290644e-002
      -4.97570224e-002 1.38707846e-001 7.64367655e-002 -5.16655482e-002
      -1.39788743e-002 -1.15556940e-002 -1.27014173e-002
      -3.52002010e-002 -5.71004339e-002 -1.15137279e-001 9.92425457e-002
      1.05776563e-001 -6.41316995e-002 -3.14970538e-002 -1.96734816e-002
      -3.11786700e-002 -1.13348747e-002 -4.02504057e-002
      -3.59812975e-002 1.00617267e-001 6.26627356e-002 -6.79228455e-002
      -1.39745567e-002 -1.08572310e-002 -9.11855884e-003
      -4.00222801e-002 -7.31418356e-002 -9.33208466e-002 7.76743665e-002
      7.89012089e-002 -8.72483402e-002 -3.49175818e-002 -2.48433203e-002
      -3.58546674e-002 -4.90030982e-002 -3.17280255e-002
      -2.59321779e-002 6.11488521e-003 6.98163956e-002 9.52401459e-002
      -3.48245017e-002 -5.04470505e-002 -5.48687242e-002
      -5.34437075e-002 -4.13575731e-002 -2.15067361e-002 7.50563713e-003
      3.73119414e-002 8.54537487e-002 1.09723751e-002 -2.27813981e-002
      -4.26072180e-002 -7.87629858e-002 -4.45035994e-002
      -2.59052645e-002 -2.87401117e-002 1.53437993e-002 9.28105935e-002
      1.74958948e-002 -4.49667163e-002 -8.00694898e-002 -3.36785689e-002
      -1.50768878e-002 2.44221054e-002 -1.25795556e-002 2.64918059e-003
      9.16036591e-002 9.88610610e-002 2.35048588e-002 -8.54177400e-003
      -1.74247082e-002 -7.52162095e-003 4.06021997e-002 1.16668552e-001
      1.88606679e-002 2.39537377e-002 8.65620282e-003 2.53688404e-003
      -9.40402225e-003 4.47207945e-004 -5.28184697e-003 5.47500551e-002
      4.14935574e-002 2.10456289e-002 -5.84735349e-002 -7.15404190e-003
      5.04200393e-003 1.78995403e-003 1.04841851e-002 3.47896703e-002
      9.73701626e-002 8.26831833e-002 -4.66109589e-002 6.59816060e-003
      3.86927053e-002 1.91973280e-002 1.59996804e-002 1.24633536e-002
      1.70094986e-002 9.19014066e-002 3.24377753e-002 -1.38606355e-002
      -8.38474482e-002 -2.26512216e-002 -1.62850395e-002
      -4.78040613e-003 -4.26838687e-003 -2.40675267e-002 4.96583655e-002
      1.24304540e-001 6.80268034e-002 -5.94140589e-002 -1.07022543e-002
      -5.51890302e-003 -6.72302581e-003 -2.88124103e-002
      -5.30705601e-002 -1.47389704e-002 9.34477746e-002 6.50541484e-002
      -7.35349879e-002 -2.89160777e-002 -1.94963347e-002
      -2.76022982e-002 3.89607460e-003 5.52032562e-003 1.11692436e-001
      9.43630561e-002 -2.20741401e-003 -6.89861476e-002 -2.29538828e-002
      -1.67008881e-002 -1.24588786e-002 -3.11696921e-002
      -4.07315008e-002 2.55176555e-002 7.13742375e-002 -5.12875319e-002
      -9.21337008e-002 -3.90764736e-002 -2.58131735e-002
      -3.52469645e-002 -3.49205025e-002 4.78441408e-003 3.90178487e-002
      4.34732623e-002 4.63462761e-003 7.92228878e-002 5.07088788e-002
      1.57540827e-003 -3.57653014e-002 4.52799536e-002 6.94247037e-002
      8.27009007e-002 2.93320101e-002 -1.52960811e-002 8.50630701e-002
      1.14330836e-001 7.47206137e-002 5.60858399e-002 -3.45886052e-002
      -5.29151922e-003 2.87656467e-002 2.54559778e-002 -4.97942828e-002
      9.98795219e-003 -1.46610197e-002 -1.89652983e-002 -3.86356935e-002
      -3.14761559e-003 2.03085952e-002 1.63624831e-003 9.92855430e-003
      -4.75939624e-002 -6.13693707e-003 -9.60010663e-003
      -2.04988662e-003 -4.27719625e-003 7.03566521e-002 1.08035490e-001
      1.28441587e-001 1.01996139e-001 -2.69425521e-003 3.95252928e-002
      5.65128960e-002 4.75171544e-002 5.13810813e-002 6.65362477e-002
      9.14746076e-002 9.45139229e-002 4.36445884e-002 2.19513420e-002
      -2.56071077e-003 2.19210442e-002 1.92561131e-002 3.21935341e-002
      1.44377574e-002 3.06834094e-002 6.77741366e-003 8.92729126e-003
      -2.99801715e-002 1.63825862e-002 5.91488183e-003 4.99002822e-003
      -6.63196435e-004 1.82262901e-002 1.37339197e-002 -2.82942746e-002
      -1.53859407e-002 -3.03761009e-002 5.34130679e-003 1.14502758e-003
      -1.66228635e-003 3.45351727e-004 6.43114671e-002 9.10740122e-002
      1.43967420e-001 8.36692005e-002 4.17287014e-002 1.38435215e-002
      2.42809355e-002 2.29664911e-002 2.56438386e-002 1.64769068e-002
      3.56736667e-002 8.53036419e-002 5.77174276e-002 -4.07401584e-002
      -1.45773906e-002 4.63346858e-003 9.31392144e-003 6.08893624e-003
      2.75472309e-002 2.63514109e-002 1.05456049e-002 -3.70517327e-003
      -3.20461802e-002 2.72476617e-002 1.39635131e-002 8.51343665e-003
      7.06466101e-003 1.68138882e-003 1.57164130e-002 9.92454495e-003
      -2.29283497e-002 -5.39949872e-002 2.49227253e-003 2.70429673e-003
      -1.00229681e-003 -6.60992088e-003</_></support_vectors>
  <decision_functions>
    <_>
      <sv_count>1</sv_count>
      <rho>-1.6955372260004556e-001</rho>
      <alpha>
        1.</alpha>
      <index>
        0</index></_>
    <_>
      <sv_count>1</sv_count>
      <rho>2.2548303929945139e+000</rho>
      <alpha>
        1.</alpha>
      <index>
        1</index></_>
    <_>
      <sv_count>1</sv_count>
      <rho>2.2250960383913094e+000</rho>
      <alpha>
        1.</alpha>
      <index>
        2</index></_></decision_functions></my_svm>
</opencv_storage>
